<?xml version="1.0"?>
<opencv_storage>
<stage13>
  <maxWeakCount>37</maxWeakCount>
  <stageThreshold>-1.1935688257217407e+00</stageThreshold>
  <weakClassifiers>
    <_>
      <internalNodes>
        0 -1 11654 2.3372691124677658e-02</internalNodes>
      <leafValues>
        -1.3483146205544472e-02 5.8028167486190796e-01</leafValues></_>
    <_>
      <internalNodes>
        0 -1 163853 1.0885284282267094e-03</internalNodes>
      <leafValues>
        -2.8322821855545044e-01 3.0254057049751282e-01</leafValues></_>
    <_>
      <internalNodes>
        0 -1 229301 1.4135407283902168e-02</internalNodes>
      <leafValues>
        -3.0166545510292053e-01 2.2936648130416870e-01</leafValues></_>
    <_>
      <internalNodes>
        0 -1 98224 2.3038040846586227e-02</internalNodes>
      <leafValues>
        -9.0835385024547577e-02 7.3409044742584229e-01</leafValues></_>
    <_>
      <internalNodes>
        0 -1 46588 -2.8556482866406441e-03</internalNodes>
      <leafValues>
        1.4206714928150177e-01 -4.1600331664085388e-01</leafValues></_>
    <_>
      <internalNodes>
        0 -1 239712 1.6446891822852194e-04</internalNodes>
      <leafValues>
        1.3431441783905029e-01 -4.8387098312377930e-01</leafValues></_>
    <_>
      <internalNodes>
        0 -1 239712 -3.7521874764934182e-04</internalNodes>
      <leafValues>
        -4.7548454999923706e-01 1.2857235968112946e-01</leafValues></_>
    <_>
      <internalNodes>
        0 -1 154806 -1.1619281023740768e-02</internalNodes>
      <leafValues>
        5.5908441543579102e-01 -1.1125417798757553e-01</leafValues></_>
    <_>
      <internalNodes>
        0 -1 99178 2.1915960311889648e-01</internalNodes>
      <leafValues>
        6.6999390721321106e-02 -7.2157847881317139e-01</leafValues></_>
    <_>
      <internalNodes>
        0 -1 63342 4.5810698065906763e-04</internalNodes>
      <leafValues>
        1.1373905092477798e-01 -4.2711845040321350e-01</leafValues></_>
    <_>
      <internalNodes>
        0 -1 114931 -8.3697494119405746e-03</internalNodes>
      <leafValues>
        4.6866121888160706e-01 -1.0969867557287216e-01</leafValues></_>
    <_>
      <internalNodes>
        0 -1 116219 -1.4611791819334030e-02</internalNodes>
      <leafValues>
        -5.8859187364578247e-01 8.8943161070346832e-02</leafValues></_>
    <_>
      <internalNodes>
        0 -1 27833 2.1624249219894409e-01</internalNodes>
      <leafValues>
        -9.9759481847286224e-02 6.0994291305541992e-01</leafValues></_>
    <_>
      <internalNodes>
        0 -1 183739 -1.7387159168720245e-02</internalNodes>
      <leafValues>
        -7.5513195991516113e-01 8.9921966195106506e-02</leafValues></_>
    <_>
      <internalNodes>
        0 -1 190637 -1.5756303910166025e-03</internalNodes>
      <leafValues>
        3.7815958261489868e-01 -1.7482881247997284e-01</leafValues></_>
    <_>
      <internalNodes>
        0 -1 165823 -3.8276379927992821e-03</internalNodes>
      <leafValues>
        6.4654070138931274e-01 -7.6672531664371490e-02</leafValues></_>
    <_>
      <internalNodes>
        0 -1 96389 -3.9763078093528748e-02</internalNodes>
      <leafValues>
        2.4706792831420898e-01 -2.3428377509117126e-01</leafValues></_>
    <_>
      <internalNodes>
        0 -1 153331 -2.8044076636433601e-02</internalNodes>
      <leafValues>
        -7.8425276279449463e-01 7.2401612997055054e-02</leafValues></_>
    <_>
      <internalNodes>
        0 -1 232562 7.1855643764138222e-03</internalNodes>
      <leafValues>
        9.1040126979351044e-02 -5.3302031755447388e-01</leafValues></_>
    <_>
      <internalNodes>
        0 -1 258382 3.2444156240671873e-03</internalNodes>
      <leafValues>
        -9.0647004544734955e-02 6.0915476083755493e-01</leafValues></_>
    <_>
      <internalNodes>
        0 -1 46302 -6.0164730530232191e-04</internalNodes>
      <leafValues>
        -5.0887268781661987e-01 1.1729503422975540e-01</leafValues></_>
    <_>
      <internalNodes>
        0 -1 15859 1.7936588265001774e-03</internalNodes>
      <leafValues>
        -2.0101423561573029e-01 2.7427721023559570e-01</leafValues></_>
    <_>
      <internalNodes>
        0 -1 17491 1.8447550246492028e-03</internalNodes>
      <leafValues>
        1.2661394476890564e-01 -4.1744837164878845e-01</leafValues></_>
    <_>
      <internalNodes>
        0 -1 46302 1.5550479292869568e-04</internalNodes>
      <leafValues>
        1.2889832258224487e-01 -4.1386049985885620e-01</leafValues></_>
    <_>
      <internalNodes>
        0 -1 83998 2.3850586730986834e-03</internalNodes>
      <leafValues>
        -1.8077713251113892e-01 3.1339874863624573e-01</leafValues></_>
    <_>
      <internalNodes>
        0 -1 259780 6.5315875690430403e-04</internalNodes>
      <leafValues>
        1.5386344492435455e-01 -3.4131029248237610e-01</leafValues></_>
    <_>
      <internalNodes>
        0 -1 114381 -1.1640471406280994e-02</internalNodes>
      <leafValues>
        3.8785657286643982e-01 -1.4708776772022247e-01</leafValues></_>
    <_>
      <internalNodes>
        0 -1 85578 3.8080744445323944e-02</internalNodes>
      <leafValues>
        8.2038491964340210e-02 -6.7211973667144775e-01</leafValues></_>
    <_>
      <internalNodes>
        0 -1 59553 -4.5244679786264896e-03</internalNodes>
      <leafValues>
        3.3327764272689819e-01 -1.7208559811115265e-01</leafValues></_>
    <_>
      <internalNodes>
        0 -1 98388 3.1632490456104279e-02</internalNodes>
      <leafValues>
        -1.6955053806304932e-01 3.0770984292030334e-01</leafValues></_>
    <_>
      <internalNodes>
        0 -1 259192 -2.2990464640315622e-04</internalNodes>
      <leafValues>
        -4.7587847709655762e-01 1.2504744529724121e-01</leafValues></_>
    <_>
      <internalNodes>
        0 -1 62888 -2.9173545539379120e-02</internalNodes>
      <leafValues>
        -5.5847531557083130e-01 8.6604796350002289e-02</leafValues></_>
    <_>
      <internalNodes>
        0 -1 95136 4.2611937969923019e-03</internalNodes>
      <leafValues>
        -1.4177626371383667e-01 4.3777576088905334e-01</leafValues></_>
    <_>
      <internalNodes>
        0 -1 251782 3.1320285052061081e-03</internalNodes>
      <leafValues>
        1.0442524403333664e-01 -5.2228730916976929e-01</leafValues></_>
    <_>
      <internalNodes>
        0 -1 195473 -1.7354976385831833e-02</internalNodes>
      <leafValues>
        5.6848490238189697e-01 -1.0550741851329803e-01</leafValues></_>
    <_>
      <internalNodes>
        0 -1 8733 2.5386559963226318e-01</internalNodes>
      <leafValues>
        8.3204030990600586e-02 -6.6682535409927368e-01</leafValues></_>
    <_>
      <internalNodes>
        0 -1 84728 -5.6399852037429810e-02</internalNodes>
      <leafValues>
        -6.6354084014892578e-01 6.6416703164577484e-02</leafValues></_></weakClassifiers></stage13>
</opencv_storage>
